{
  "object_classifier_type": "OpenCVMLClassifier",
  "featureExtractor": {
    "feature_extractor_type": "NormalizedFeatureExtractor",
    "featureExtractor": {
      "feature_extractor_type": "DefaultFeatureExtractor",
      "measurements": [
        "Detection probability",
        "Nucleus: Area µm^2",
        "Nucleus: Length µm",
        "Nucleus: Circularity",
        "Nucleus: Solidity",
        "Nucleus: Max diameter µm",
        "Nucleus: Min diameter µm",
        "Cell: Area µm^2",
        "Cell: Length µm",
        "Cell: Circularity",
        "Cell: Solidity",
        "Cell: Max diameter µm",
        "Cell: Min diameter µm",
        "Nucleus/Cell area ratio",
        "Hematoxylin: Nucleus: Mean",
        "Hematoxylin: Nucleus: Median",
        "Hematoxylin: Nucleus: Min",
        "Hematoxylin: Nucleus: Max",
        "Hematoxylin: Nucleus: Std.Dev.",
        "Hematoxylin: Cytoplasm: Mean",
        "Hematoxylin: Cytoplasm: Median",
        "Hematoxylin: Cytoplasm: Min",
        "Hematoxylin: Cytoplasm: Max",
        "Hematoxylin: Cytoplasm: Std.Dev.",
        "Hematoxylin: Membrane: Mean",
        "Hematoxylin: Membrane: Median",
        "Hematoxylin: Membrane: Min",
        "Hematoxylin: Membrane: Max",
        "Hematoxylin: Membrane: Std.Dev.",
        "Hematoxylin: Cell: Mean",
        "Hematoxylin: Cell: Median",
        "Hematoxylin: Cell: Min",
        "Hematoxylin: Cell: Max",
        "Hematoxylin: Cell: Std.Dev.",
        "Eosin: Nucleus: Mean",
        "Eosin: Nucleus: Median",
        "Eosin: Nucleus: Min",
        "Eosin: Nucleus: Max",
        "Eosin: Nucleus: Std.Dev.",
        "Eosin: Cytoplasm: Mean",
        "Eosin: Cytoplasm: Median",
        "Eosin: Cytoplasm: Min",
        "Eosin: Cytoplasm: Max",
        "Eosin: Cytoplasm: Std.Dev.",
        "Eosin: Membrane: Mean",
        "Eosin: Membrane: Median",
        "Eosin: Membrane: Min",
        "Eosin: Membrane: Max",
        "Eosin: Membrane: Std.Dev.",
        "Eosin: Cell: Mean",
        "Eosin: Cell: Median",
        "Eosin: Cell: Min",
        "Eosin: Cell: Max",
        "Eosin: Cell: Std.Dev."
      ]
    },
    "normalizer": {
      "offsets": [
        0.0,
        0.0,
        0.0,
        0.0,
        0.0,
        0.0,
        0.0,
        0.0,
        0.0,
        0.0,
        0.0,
        0.0,
        0.0,
        0.0,
        0.0,
        0.0,
        0.0,
        0.0,
        0.0,
        0.0,
        0.0,
        0.0,
        0.0,
        0.0,
        0.0,
        0.0,
        0.0,
        0.0,
        0.0,
        0.0,
        0.0,
        0.0,
        0.0,
        0.0,
        0.0,
        0.0,
        0.0,
        0.0,
        0.0,
        0.0,
        0.0,
        0.0,
        0.0,
        0.0,
        0.0,
        0.0,
        0.0,
        0.0,
        0.0,
        0.0,
        0.0,
        0.0,
        0.0,
        0.0
      ],
      "scales": [
        1.0,
        1.0,
        1.0,
        1.0,
        1.0,
        1.0,
        1.0,
        1.0,
        1.0,
        1.0,
        1.0,
        1.0,
        1.0,
        1.0,
        1.0,
        1.0,
        1.0,
        1.0,
        1.0,
        1.0,
        1.0,
        1.0,
        1.0,
        1.0,
        1.0,
        1.0,
        1.0,
        1.0,
        1.0,
        1.0,
        1.0,
        1.0,
        1.0,
        1.0,
        1.0,
        1.0,
        1.0,
        1.0,
        1.0,
        1.0,
        1.0,
        1.0,
        1.0,
        1.0,
        1.0,
        1.0,
        1.0,
        1.0,
        1.0,
        1.0,
        1.0,
        1.0,
        1.0,
        1.0
      ],
      "missingValue": 0.0
    }
  },
  "classifier": {
    "class": "ANN_MLP",
    "statmodel": {
      "format": 3,
      "layer_sizes": [
        54,
        2
      ],
      "activation_function": "SIGMOID_SYM",
      "f_param1": 1.0,
      "f_param2": 1.0,
      "min_val": -9.4999999999999996e-01,
      "max_val": 9.4999999999999996e-01,
      "min_val1": -9.7999999999999998e-01,
      "max_val1": 9.7999999999999998e-01,
      "training_params": {
        "train_method": "RPROP",
        "dw0": 1.0000000000000001e-01,
        "dw_plus": 1.2000000000000000e+00,
        "dw_minus": 5.0000000000000000e-01,
        "dw_min": 1.1920928955078125e-07,
        "dw_max": 50.0,
        "term_criteria": {
          "epsilon": 1.0000000000000000e-02,
          "iterations": 1000
        }
      },
      "input_scale": [
        1.3884230478630293e+01,
        -1.0436028848950381e+01,
        4.0651217206917785e-02,
        -1.5288830675717675e+00,
        1.4902576440765389e-01,
        -3.2632152740591982e+00,
        1.8651759142111512e+01,
        -1.6932751758711024e+01,
        7.9975348973840283e+01,
        -7.9813989744728346e+01,
        3.7380041101211908e-01,
        -2.9905965766939682e+00,
        6.1167716922545190e-01,
        -3.5192343231666916e+00,
        2.3319211712556121e-02,
        -2.2874284833089127e+00,
        1.3240275045470298e-01,
        -4.8788867016263282e+00,
        1.5880131397602792e+01,
        -1.3770291753516185e+01,
        5.1799179370354359e+01,
        -5.0826996462122764e+01,
        3.5865866097388122e-01,
        -4.7469990799870470e+00,
        4.6927276840148247e-01,
        -4.5527534416253266e+00,
        1.0147320988075766e+01,
        -3.7268640560457684e+00,
        3.7563079961938541e+00,
        -2.8222394651682250e+00,
        3.4207509789013120e+00,
        -2.6126520844583649e+00,
        7.2903065872421591e+00,
        -1.1929507138294884e+00,
        2.0236865315993695e+00,
        -2.8701281475600342e+00,
        8.9732545773844841e+00,
        -2.2544507476912941e+00,
        9.2196282204976701e+00,
        -2.0842894032683126e+00,
        8.4876590975436681e+00,
        -1.5404532839449356e+00,
        2.1340521185877950e+01,
        6.4541155503805547e-01,
        3.0137932665358207e+00,
        -2.9686044300429262e+00,
        1.5334500805912315e+01,
        -2.8641689072376773e+00,
        8.6606817415675295e+00,
        -1.7829889272624488e+00,
        8.5503568388131157e+00,
        -1.4597032278579616e+00,
        1.9717646673081735e+01,
        3.0540728997987365e-01,
        3.1075686746922222e+00,
        -2.1133265088121331e+00,
        1.2863514501373606e+01,
        -2.0644588022774628e+00,
        7.9272915122578809e+00,
        -3.2034772169770411e+00,
        6.1492929262431808e+00,
        -1.8573746533587634e+00,
        2.1697724885291631e+01,
        6.7287375171150243e-01,
        2.0260795259491804e+00,
        -2.8956706968133008e+00,
        7.4670422801461367e+00,
        -2.4551901654398010e+00,
        1.7603024815704330e+01,
        -2.1020666846556337e+00,
        1.7723557439925614e+01,
        -2.0074159355618573e+00,
        4.8008125885821906e+00,
        9.8948794236022031e-01,
        3.0647364222699682e+00,
        -1.4691812331912364e+00,
        1.2562629775839415e+01,
        -1.5394854943914542e+00,
        1.8172876240023772e+01,
        -1.8730041731417946e+00,
        1.7708167986592180e+01,
        -1.8311933989238971e+00,
        8.8517673621658144e+00,
        8.2400096007605295e-01,
        7.7696295729603495e+00,
        -2.0826594164420631e+00,
        4.8397922833946005e+01,
        -2.6474752710474303e+00,
        1.7803035271910812e+01,
        -1.8877641496042963e+00,
        1.7244050875851336e+01,
        -1.8057484529102026e+00,
        1.3645091260729304e+01,
        2.5527867627681750e-01,
        9.2220882392120895e+00,
        -2.1773014024968322e+00,
        4.4806689473518418e+01,
        -2.3295121210659278e+00,
        1.8800432115096598e+01,
        -2.0465181349344106e+00,
        1.8251381185567340e+01,
        -1.9319916323956488e+00,
        4.7829401642175453e+00,
        1.0379696088234613e+00,
        3.0625094741185959e+00,
        -1.4977509313276964e+00,
        2.2666122841938190e+01,
        -1.9651871233359419e+00
      ],
      "output_scale": [
        1.0,
        0.0,
        1.0,
        0.0
      ],
      "inv_output_scale": [
        1.0,
        0.0,
        1.0,
        0.0
      ],
      "weights": [
        [
          5.3131502607590453e-01,
          1.3319032953543575e-01,
          7.5677286629269147e-02,
          3.1806455147243787e-03,
          -7.5296388482771714e-01,
          1.7410383250467160e-01,
          -6.5718326911217329e-01,
          5.6077796882772435e-01,
          1.4355113845598161e-01,
          -2.7589820288151073e-01,
          -9.3726938824941830e-01,
          1.1273909427692799e+00,
          3.3792224510181301e-01,
          1.2580719918406363e-01,
          -7.4447272743560278e-01,
          5.0350170458677901e-02,
          -8.1057370658860572e-01,
          6.4570399303329262e-01,
          -2.8815758124418311e-01,
          1.0613828078319948e-01,
          3.7224267919660070e-01,
          -9.2478641209280732e-02,
          -3.2678283297318611e-01,
          1.3640023219146697e+00,
          -1.0364842630454227e+00,
          1.6912933555400111e+00,
          -5.3676523232830187e-01,
          7.4875001179266654e-01,
          1.1938863816812013e+00,
          -2.1728246328279646e+00,
          1.9005019638922551e+00,
          -3.6124597246245034e+00,
          -1.6750112022431682e-01,
          -1.9736721466993229e-01,
          -5.3750827455159578e-03,
          1.0342167736052412e+00,
          -1.3496084665863162e-01,
          -1.3093091792621530e+00,
          -1.5330208939125556e-01,
          -7.7381676828638113e-03,
          5.1686721932381874e-01,
          6.3168367752957066e-01,
          -7.9753752002407829e-01,
          6.6204874496166144e-01,
          -2.6004031347000062e-01,
          -4.2408458497567647e-01,
          -5.4686580456146239e-01,
          4.2267154081098107e-01,
          6.2117431785880362e-01,
          7.0263537699839507e-01,
          -1.1724467699660965e+00,
          -3.7546113575704887e-01,
          -9.4388902234390426e-01,
          -6.1731725412889404e-01,
          -7.3112030637524750e-01,
          2.4387987377295198e-01,
          9.6708275345891925e-01,
          1.5507609635086583e-01,
          -5.2843267148099748e-01,
          -1.2043873253617352e-01,
          -6.0703943680523076e-01,
          4.1308862491398889e-02,
          2.2855201109314574e-01,
          1.1902682401126872e+00,
          -1.4586465862716863e-01,
          -5.8694397098993642e-02,
          2.0510988973135409e+00,
          -4.4058807822921127e+00,
          5.3717924422466412e-01,
          1.0892272856150961e-01,
          -4.5976354260767632e-01,
          -4.5710278828830914e-02,
          -6.7111726958554385e-02,
          -1.1266965359361265e-01,
          1.3495583249953398e+00,
          -1.0543581371422708e+00,
          6.7783428476582031e-01,
          -7.5820186675059664e-01,
          6.8271281498259717e-01,
          -5.8791671161933907e-02,
          -9.3443263461570902e-01,
          -9.4366261563277237e-02,
          -6.5883480364552061e-01,
          -6.4001380261849916e-01,
          1.0451022662285130e-01,
          4.1599372517711841e-01,
          -5.1432979559771852e-01,
          1.5904643675018923e-01,
          -8.4432473820839860e-01,
          4.1337428950857474e-01,
          9.8918057798433190e-01,
          9.2360472791201131e-01,
          7.1413128861014574e-01,
          2.5961010759479131e-01,
          -7.9186179150659919e-01,
          3.1202167349121934e-01,
          -3.3639543745691192e-01,
          4.5762746282061900e-01,
          9.5306022142570823e-01,
          -2.5812084340957475e-01,
          -3.7019001215589353e-01,
          -4.3609373559489228e-01,
          5.9580211866483324e-01,
          -7.7101094798609293e-01,
          3.8444305971371939e-01,
          -1.8652039138823739e+00,
          6.6781601499775434e-01,
          -2.6964085469021148e-01,
          -1.7095248939777175e+00,
          1.9560948934635687e+00
        ]
      ]
    }
  },
  "pathClasses": [
    {
      "name": "Lymphocyte",
      "colorRGB": -14336
    },
    {
      "name": "Other",
      "colorRGB": -16744320
    }
  ],
  "requestProbabilityEstimate": false,
  "filter": "DETECTIONS_ALL",
  "timestamp": 1612801125986
}